tree
version=v4
num_class=1
num_tree_per_iteration=1
label_index=0
max_feature_idx=151
objective=regression
feature_names=Column_0 Column_1 Column_2 Column_3 Column_4 Column_5 Column_6 Column_7 Column_8 Column_9 Column_10 Column_11 Column_12 Column_13 Column_14 Column_15 Column_16 Column_17 Column_18 Column_19 Column_20 Column_21 Column_22 Column_23 Column_24 Column_25 Column_26 Column_27 Column_28 Column_29 Column_30 Column_31 Column_32 Column_33 Column_34 Column_35 Column_36 Column_37 Column_38 Column_39 Column_40 Column_41 Column_42 Column_43 Column_44 Column_45 Column_46 Column_47 Column_48 Column_49 Column_50 Column_51 Column_52 Column_53 Column_54 Column_55 Column_56 Column_57 Column_58 Column_59 Column_60 Column_61 Column_62 Column_63 Column_64 Column_65 Column_66 Column_67 Column_68 Column_69 Column_70 Column_71 Column_72 Column_73 Column_74 Column_75 Column_76 Column_77 Column_78 Column_79 Column_80 Column_81 Column_82 Column_83 Column_84 Column_85 Column_86 Column_87 Column_88 Column_89 Column_90 Column_91 Column_92 Column_93 Column_94 Column_95 Column_96 Column_97 Column_98 Column_99 Column_100 Column_101 Column_102 Column_103 Column_104 Column_105 Column_106 Column_107 Column_108 Column_109 Column_110 Column_111 Column_112 Column_113 Column_114 Column_115 Column_116 Column_117 Column_118 Column_119 Column_120 Column_121 Column_122 Column_123 Column_124 Column_125 Column_126 Column_127 Column_128 Column_129 Column_130 Column_131 Column_132 Column_133 Column_134 Column_135 Column_136 Column_137 Column_138 Column_139 Column_140 Column_141 Column_142 Column_143 Column_144 Column_145 Column_146 Column_147 Column_148 Column_149 Column_150 Column_151
feature_infos=[-0.48958333333333331:0.5] [-0.99809220811947619:0.99815837781083716] [-0.99999999999842037:1.0000000017217998] [-9:-1] [-0.57291666666666663:-0.00010850694444444444] [-0.98621850991000559:0.99399407439291532] [-60:60] [-1:-0.010416666666666666] [-7.5631504058837891:8.6776704788208008] [0.010416666666666666:1] [0.00036227508754981284:1.7645399305555556] [-6.7314968109130859:8.2136363983154297] [-1:-0.010416666666666666] [-0.69528218513916329:0.9694203855818202] [-2.9700000000000015:-0.079999999999999336] [-1:-0.010416666666666666] [-0.44956349322058609:-1.2998227719907408e-05] [-1:-0.010416666666666666] [-2:2] [-0.55178609580251892:-1.1302806712962962e-06] [-1:1] [-1.6251946541339664:1.1444846031166049] [-101.0400390625:44.050048828125] [-24.974146842956543:12.618515014648438] [0.010416666666666666:1] [-1.0000000000000822:1.0000000000000022] [-1:1] [-9.0728604627721008e-05:0.00058146491611343117] [1.0104166666666667:6] [0:0.47649659360333252] [-0.97958333333333336:3] [-0.00015807143445220216:0.0063652993781950877] [0.010416666666666666:1] [0.010416666666666666:1] [0:14880] [0.37405701754385962:4.9181510416666665] [0.020416666666666666:2] [-0.84377604166666687:-0.0001098901098901099] [-2:-0.010525173611111112] [-0.92497979063793778:0.95029579727854951] [-3.7509012041824263:12.742810442038618] [0.010416666665624999:3.028064841850985] [1:160] [-0.99972999586235234:0.99933425569069589] [-0.86624999999999996:0.85397727272727275] [-66.2645263671875:13.899658203125] [-0.99293171233856536:5.1253907281034099] [-0.01374055336094062:0.012124277622488485] [-66.2645263671875:36.1685791015625] [-1:-0.01] [-66.2645263671875:54.3463134765625] [-14.206095829606056:48.868591288725533] [-1.5697486543500185:1.552478198491426] [-1.3677066208731339:464.7669864982297] [-1.0000000000033804:1.000000000013529] [-0.88650173611111116:-0.00010850694444444444] [-25.808495758777923:63.522336969549784] [-5:-1] [-8:-1] [-0.00083130071969178369:0.00031512363255590333] [0:1] [-1:0] [-0.98999999999999988:0.98999999999999999] [-1:0] [-1:0] [-8:-1.01] [-1:-0.091910342573933823] [-1:-1.4439724346087484e-18] [-1:0] [0.0099999999989999998:4.0194931734849346] [-1:0] [0:1] [0.015848931924611134:1] [0:1] [-0.99431818181818177:-1.4551915228366852e-11] [-1:0] [-29.569201432570104:340.5435240151495] [0:1.2432447441976134e+54] [0.010471285480508996:1] [-14:3] [-1:-1.130280671296296e-06] [-4.9900000000000002:0] [0.99999999989999999:54.553530539530762] [-1:-1.130280671296296e-06] [0:1] [0:6.9900000000000002] [-0.98999999999999988:0.98999999999999999] [-1:0] [-0.0038792657092786005:0.00048718398184550581] [-68.143288913574793:0.999527037121827] [10.523497397375156:92.859291874400284] [0:99.271368931652546] [21.738413868430555:85.412930320553059] [-19.586448669433594:13.876937866210938] [-27.356996536254883:19.444087028503418] [-28.281075464961404:21.504319168619233] [-33.993142445170491:33.7033635377135] [-408.73452379938607:416.90481472664629] [-543.30804267898009:396.31006411573406] [-1463.3632047856281:0] [-5.3947150000057915:4.0720718281265622] [-4.5232561787298016:3.6919687143546733] [-2.3679430668779391:1.3417824869176234] [0.23037742379145873:210.01236559371262] [0.21536493599414824:201.76766853332521] [0.19313632439618028:196.99709918151152] [0.0076564662924621194:0.48908113535572878] [0.20914155244827271:203.90975456237794] [0.21166301816701888:202.8626214981079] [0.21536493599414824:201.76766853332521] [0.21860842108726503:199.82559916178388] [0.21419138671921276:201.92098571829825] [0.22299089957629897:199.42952149871903] [0.21373801068181084:202.22897707621257] [0.20631059399347265:205.16848590659367] [0.021225369748986929:38.460775369238533] [0.021888149304644815:38.565010873146733] [0.79956164276386699:95.690473258436072] [0:39.858279228210449] [0.0029363082128385566:8.5257753424467566] [-668264900:1692302250] [-1094516970190.1965:19963907181.713726] [-3534738438.7531729:982220566.01049805] [-6.6327501429477064e-14:100.00000000000023] [9.4259986730514225:96.754664612632695] [0.21687744061152139:228.51956303914386] [5.2920354241317771:67.626608108106282] [5.1601593193345963:57.016177904012785] [7.220315684076958:61.439489788010732] [0:100] [0:100] [-99.999999999999986:100] [0.00011697091914284606:91.742785044384448] [0.047589861928781882:22.770266485946792] [0:14.926581853239396] [-1384.1626931979952:99.960254085891151] [-1353.553017778321:98.81109951173022] [-1363.3632047856281:100.00000000000001] [-1384.1626931979952:99.960254085891151] [-17.349314699006555:13.532822164905676] [-7.7981405869508347:5.1327300438514385] [0.21715807914733887:230.13376522064209] [0.2226250022649765:240.38250827789307] [0.21687744061152139:228.51956303914386] [0.21364925801753998:223.55042171478271] [-68.633879201646181:1] [-100:100] [-0.99401464231624315:1.0168016337432153] [-0.23634558491187019:0.18033746917552701] [-0.017026464761598734:0.05467316439304834] [-13.830138497121256:18.836153258881041] [-10.189873792891824:0.99999999999489542]
tree_sizes=3773 3397 3528 4473 3976 2608 3324 2944 2661

Tree=0
num_leaves=38
num_cat=0
split_feature=149 34 106 129 129 106 42 129 34 51 148 11 47 27 134 129 148 23 130 92 14 145 77 48 51 42 106 51 42 99 144 124 49 38 35 0 56
split_gain=0.0837868 0.101643 0.0262177 0.0357718 0.0215057 0.0261332 0.0183184 0.0215319 0.0233941 0.0230859 0.016661 0.0173796 0.0129115 0.0126355 0.0168475 0.00823989 0.00888593 0.00912884 0.00779463 0.00747343 0.00655795 0.0058518 0.00579781 0.00516682 0.00450002 0.00436233 0.00929203 0.00737566 0.00363152 0.00355742 0.00490592 0.00334579 0.0029627 0.0028582 0.0019376 0.00110315 1.92657e-05
threshold=0.011076940382806733 274.00000000000006 0.17221163774081394 76.78571428571432 76.78571428571432 0.12386718507128366 34.750000000000007 98.214285714285737 288.50000000000006 0.021252393722534183 0.0057829358785229093 -0.60235214233398426 0.0012638748095929605 0.0002915560825634423 11.803973442165772 98.214285714285737 -0.053065520315085123 0.56850242614746105 33.928571428571431 44.476714070514269 -1.5349999999999979 -0.60344966498022423 0.99999316502676949 -0.064409732818603502 -1.2106479767597083 132.75000000000003 0.090137194682989738 4.6700979868570975 104.75000000000001 -316.24025312161251 104.63657665252687 64.370929668362862 -0.62749999999999984 -0.36840106451023386 3.7726201372997714 0.027034136076689256 15.229279858837623
decision_type=2 2 2 2 2 2 2 2 2 2 2 2 2 2 2 2 2 2 2 2 2 2 2 2 2 2 2 2 2 2 2 2 2 2 2 2 2
left_child=4 2 -2 -4 12 15 10 9 -9 -8 11 -7 13 14 22 25 17 -17 29 -12 -18 28 -1 -3 -23 27 -27 -6 -15 36 -31 -16 35 -34 -5 -20 -14
right_child=1 23 3 34 5 6 7 8 -10 -11 19 -13 18 21 31 16 20 -19 32 -21 -22 24 -24 -25 -26 26 -28 -29 -30 30 -32 -33 33 -35 -36 -37 -38
leaf_value=0.00074426493474799647 0.00071208371882797432 0.00071208371882797432 0.00071208371882797432 0.0022507549255977931 0.00074268827525611567 0.0014820818530431067 0.0012581195373522495 0.0007175668487868289 0.00034260104162626623 0.00076892245377363294 0.00088162008879507172 0.00093361220066683504 0.00071208371882797432 0.00067587685188417893 0.0002633798022189943 0.00014285004833632141 0.00063656360576682248 0.00071208371882797432 0.0006494673503684964 0.00070459189905576263 0.00072180407597121157 0.00066546339205307223 0.00071033289361236394 -0.00013951417656063263 0.0008525037352979342 0.00071703206207389327 0.0013198508946829983 0.00054332202378993785 0.00071938617036662416 0.00031383496093422074 0.00071208371882797432 0.00071208371882797432 0.0005293126873644324 0.00071208371882797432 0.00093253363158891326 0.00074992209478289289 0.00069336780813506339
leaf_weight=16962 95 54 55 245 15797 212 333 1726 502 1493 926 1894 56 43648 241 153 3132 223 445 1008 6822 250 44289 67 885 404 107 444 4343 472 72 54 594 195 51 702 136
leaf_count=16962 95 54 55 245 15797 212 333 1726 502 1493 926 1894 56 43648 241 153 3132 223 445 1008 6822 250 44289 67 885 404 107 444 4343 472 72 54 594 195 51 702 136
internal_value=0.000712084 0.00131838 0.00168814 0.00189334 0.000710241 0.000744194 0.000823259 0.000740695 0.000644103 0.00087219 0.000899881 0.00100119 0.000699483 0.000702352 0.000717102 0.000719636 0.000685783 0.000443459 0.000590082 0.000776502 0.000697487 0.000683364 0.000719322 0.000164283 0.000789301 0.000742004 0.000893448 0.000735684 0.000680335 0.000441642 0.000372695 0.000342684 0.000659582 0.000585097 0.00210992 0.000712084 0.000712084
internal_weight=0 567 446 351 148520 35176 8094 4054 2228 1826 4040 2106 113344 110672 61546 27082 10330 376 2672 1934 9954 49126 61251 121 1135 16752 511 16241 47991 736 544 295 1936 789 296 1147 192
internal_count=149087 567 446 351 148520 35176 8094 4054 2228 1826 4040 2106 113344 110672 61546 27082 10330 376 2672 1934 9954 49126 61251 121 1135 16752 511 16241 47991 736 544 295 1936 789 296 1147 192
is_linear=0
shrinkage=1


Tree=1
num_leaves=35
num_cat=0
split_feature=149 34 83 83 129 106 42 129 129 129 34 149 95 147 0 0 97 128 149 27 10 0 19 139 34 77 94 94 88 83 30 74 27 78
split_gain=0.0461563 0.0871891 0.0350038 0.0736917 0.0211761 0.0178952 0.0191272 0.0175061 0.0170272 0.0168038 0.0307222 0.0235667 0.0156788 0.0142721 0.0133553 0.058358 0.0117225 0.0108304 0.0107336 0.0116083 0.00988494 0.0097099 0.00807475 0.00869434 0.00671745 0.00653118 0.00486475 0.00628666 0.00403567 0.00446485 0.0037438 0.00276739 0.00254732 0.00197879
threshold=0.011076940382806733 701.00000000000011 -0.45776597826411203 -0.41690269606524927 76.78571428571432 0.099738540075136148 34.750000000000007 76.78571428571432 98.214285714285737 98.214285714285737 288.50000000000006 0.0057486256787574472 -6.5468694505024674 -0.84480809823626268 -0.12033539377289378 -0.18715659340659338 -52.69351731640851 22.123947565585308 0.0042718003875732661 0.00028637821040471053 0.040158850884793117 0.26579122340425537 -0.0074595017960790546 2.213146423174813 4655.5000000000009 13.951839737422155 -3.3352813720703121 -0.16150903701782224 -0.0014542521194510615 -0.34891804899075513 0.11955294705294707 -0.29826379216962823 0.00024601869270939942 0.77129860257247418
decision_type=2 2 2 2 2 2 2 2 2 2 2 2 2 2 2 2 2 2 2 2 2 2 2 2 2 2 2 2 2 2 2 2 2 2
left_child=4 2 -2 -4 12 28 14 -5 -9 11 -11 -8 16 22 15 -7 26 -18 19 -15 -19 -16 24 -24 -14 -20 33 -28 29 -6 32 -32 -30 -1
right_child=1 -3 3 7 5 6 9 8 -10 10 -12 -13 13 18 21 -17 17 20 25 -21 -22 -23 23 -25 -26 -27 27 -29 30 -31 31 -33 -34 -35
leaf_value=0 0.0016080486989984847 -0.00075208268354786225 -0.00094507767019302467 0 -0.00041961663402108616 0.00010970275075185084 5.513009048412274e-05 0.0017691601294603559 0.00043011550185574778 1.8825558343554249e-05 -0.0003244011829688743 0.00056694908913499113 3.9308502122504746e-05 4.7934790774818018e-06 2.3311733597851161e-05 0.00081114161202350461 0 0 -1.3016729918308558e-06 -2.8326028341247392e-05 -0.00076474455227791051 0.00021449564047726152 0 0.00019822914821964493 -0.00016972659008953532 -0.00021073131259588358 -0.00024974739409375479 3.4551141322490986e-06 0.00010630947535589888 0 3.7161725109724691e-05 -1.1610456591827216e-05 1.0749733157581561e-05 0.00022306012895519602
leaf_weight=245 117 100 63 51 113 1709 2858 76 147 2932 801 266 3580 53219 2850 395 85 71 936 50624 207 1056 756 1693 408 1124 497 139 1503 238 3639 14029 2665 108
leaf_count=245 117 100 63 51 113 1709 2858 76 147 2932 801 266 3580 53219 2850 395 85 71 936 50624 207 1056 756 1693 408 1124 497 139 1503 238 3639 14029 2665 108
internal_value=0 0.00045586 0.000778412 0.000410674 -6.63288e-07 3.31313e-05 8.01774e-05 0.00081659 0.0010066 1.88374e-05 -4.82279e-05 0.00010696 -1.13032e-05 -9.03059e-06 0.000145981 0.000253747 -0.000181446 -0.000438696 -1.36189e-05 -1.11119e-05 -0.000589793 8.14594e-05 6.25606e-05 0.000135285 1.16005e-05 -0.00012777 -6.12651e-05 -0.000155316 4.71741e-06 -0.000159777 8.51716e-06 -1.47896e-07 5.12308e-05 3.76039e-05
internal_weight=0 554 454 337 148746 35054 12867 274 223 6857 3733 3124 113692 112340 6010 2104 1352 363 105903 103843 278 3906 6437 2449 3988 2060 989 636 22187 351 21836 17668 4168 353
internal_count=149300 554 454 337 148746 35054 12867 274 223 6857 3733 3124 113692 112340 6010 2104 1352 363 105903 103843 278 3906 6437 2449 3988 2060 989 636 22187 351 21836 17668 4168 353
is_linear=0
shrinkage=0.05


Tree=2
num_leaves=38
num_cat=0
split_feature=149 34 129 129 129 47 106 129 11 83 149 42 147 83 83 47 68 95 67 27 130 27 35 135 77 11 68 96 47 128 45 37 131 67 119 93 147
split_gain=0.0354076 0.0591847 0.0338208 0.0437124 0.015784 0.0171343 0.0165679 0.0183531 0.0232895 0.0312078 0.021542 0.0208961 0.015651 0.0152398 0.032007 0.01195 0.0101332 0.0097509 0.0102185 0.00918819 0.00899341 0.00759502 0.00695302 0.00643389 0.00642578 0.00625022 0.00428966 0.004229 0.00418788 0.00413528 0.00591177 0.00411075 0.00362953 0.00334167 0.00295968 0.00221973 0.001205
threshold=0.011076940382806733 701.00000000000011 98.214285714285737 76.78571428571432 76.78571428571432 0.0012638748095929605 0.12386718507128366 98.214285714285737 -0.47828626632690424 -0.36827819453949856 0.0057486256787574472 19.250000000000004 -0.83938921848033032 -0.45776597826411203 -0.41690269606524927 -0.00011693785586346541 -0.0269923937960341 10.45237725533409 -0.17582404657456338 0.0001476015015171839 33.928571428571431 0.00031209486434528535 3.5877721497252755 -107.29520470378726 0.12803802580009582 0.70424556732177745 -0.11004150918509109 2.1959438079455555 -0.00058132560473339882 17.174238854624825 0.99977684020996105 -0.18702105978260866 -80.357142857142819 -0.3170049085403725 2.4945118451128949 -2.5514659881591792 -0.71719995279790361
decision_type=2 2 2 2 2 2 2 2 2 2 2 2 2 2 2 2 2 2 2 2 2 2 2 2 2 2 2 2 2 2 2 2 2 2 2 2 2
left_child=4 2 3 -2 5 12 25 10 11 -10 15 -9 16 -4 -15 -8 28 21 -19 -18 24 -14 -12 -16 -7 31 34 -26 -1 36 -31 33 -28 -6 -27 -33 -22
right_child=1 -3 13 -5 6 20 7 8 9 -11 22 -13 17 14 23 -17 19 18 -20 -21 29 -23 -24 -25 27 26 32 -29 -30 30 -32 35 -34 -35 -36 -37 -38
leaf_value=-0.00018982548030107075 0 -0.00061177686500491174 0.00091147185323170877 0.0017931526846098464 -1.6395008253087224e-05 0 0 0.00095792226179307978 -0.00052463219732649252 0 0.00064585246500692482 4.8838348228192669e-05 0 -0.00096647378430622297 0 0.00017150628080741127 0.00016968264381891479 0 -0.0002862176188970674 1.9050103051618375e-05 0 -2.790318702362494e-05 0 0.00060532226716057886 -0.00039856941537295054 0.00014875538785782017 -0.00016516998030106743 0 0 0 -0.00020203507645332101 5.6011223858137982e-05 -2.9074636596267037e-05 6.538445623975356e-05 -3.9722768650121766e-05 -1.9757764479708111e-06 9.3793400076307615e-05
leaf_weight=320 64 93 57 118 994 76 1599 106 322 2206 291 334 64970 60 54 3126 2632 658 666 2330 69 37880 51 104 576 420 897 132 1478 683 769 1797 2652 6220 108 13944 401
leaf_count=320 64 93 57 118 994 76 1599 106 322 2206 291 334 64970 60 54 3126 2632 658 666 2330 69 37880 51 104 576 420 897 132 1478 683 769 1797 2652 6220 108 13944 401
internal_value=0 0.00040017 0.000661956 0.0012241 -1.17886e-06 -1.03887e-05 2.79532e-05 9.13121e-05 0 -6.60054e-05 0.000149241 0.000326981 -7.11733e-06 0.000194883 0 0.000114641 6.60325e-05 -1.2105e-05 -0.000148259 0.000104014 -0.000135187 -1.0107e-05 0.000551897 0.000376188 -0.000287891 8.19158e-06 -4.71262e-05 -0.000338233 -2.48936e-05 -5.97245e-05 -0.000107096 1.91079e-05 -7.05689e-05 5.06504e-05 6.29854e-05 3.0607e-06 3.34758e-05
internal_weight=0 550 457 182 148707 113640 35067 8035 2968 2528 5067 440 110934 275 218 4725 6760 104174 1324 4962 2706 102850 342 158 784 27032 4077 708 1798 1922 1452 22955 3549 7214 528 15741 470
internal_count=149257 550 457 182 148707 113640 35067 8035 2968 2528 5067 440 110934 275 218 4725 6760 104174 1324 4962 2706 102850 342 158 784 27032 4077 708 1798 1922 1452 22955 3549 7214 528 15741 470
is_linear=0
shrinkage=0.05


Tree=3
num_leaves=50
num_cat=0
split_feature=18 96 130 28 88 77 148 133 42 97 118 74 47 28 46 68 134 133 88 133 134 42 13 28 148 38 86 39 13 93 97 1 133 102 88 101 129 44 28 25 126 8 51 65 74 51 93 13 131
split_gain=0.028295 0.03093 0.0274613 0.0254384 0.0140727 0.0180128 0.0373141 0.0137918 0.0203127 0.0352546 0.0113479 0.0110281 0.0104114 0.0100204 0.0100077 0.00917761 0.00795539 0.008488 0.0089193 0.00780438 0.00926029 0.00756079 0.00732939 0.00694924 0.00688672 0.0065965 0.00649836 0.00644081 0.00684052 0.0064333 0.00967278 0.0054611 0.00529162 0.00523035 0.00518441 0.00455345 0.00351034 0.00317477 0.00302823 0.00255694 0.00144881 0.00124334 0.000484004 0.000374507 0.000284928 0.000267419 3.40307e-05 2.43245e-05 6.25205e-06
threshold=-0.13786549707602366 -13.795057257083995 5.3290705182007522e-15 3.04188596491228 -0.0005668005498863255 0.29684421480948481 -0.065636324203833987 8.3089606460453727 15.500000000000002 -114.7480718009278 2.6058068275451665 -0.17707390080771715 0.0013472799673891927 3.7715277777777785 2.2115935144518395 -0.99490576140703135 11.803973442165772 10.912601129614655 -0.00080240895368739469 4.6675496596589001 8.9138613893212746 95.250000000000014 0.20107148729722399 4.4378511235955065 0.031264271564490402 -0.67162386813808705 -0.71499999999999964 -0.14482206290126939 0.3308278904752327 -0.081349372863769517 -141.42597754471157 0.18530511764195517 9.8021520086272087 0.0027037109694756927 -0.00068620649482884659 0.93686615297416531 98.214285714285737 0.029166666666666678 4.5729751872659188 -0.4614791034954478 21.696266346016596 0.081674575805664076 0.045555565092298723 -6.6349999999999989 -0.019975941225927104 -0.0048985803301954426 1.1826686859130862 0.11517563180672566 83.928571428571459
decision_type=2 2 2 2 2 2 2 2 2 2 2 2 2 2 2 2 2 2 2 2 2 2 2 2 2 2 2 2 2 2 2 2 2 2 2 2 2 2 2 2 2 2 2 2 2 2 2 2 2
left_child=12 2 24 14 5 38 -7 10 9 -9 31 -10 15 27 19 29 17 21 -19 25 -21 -17 42 35 26 -3 -2 43 32 30 -1 -5 -29 -28 -12 -18 47 -38 -4 -31 41 -15 -6 -14 -41 48 -45 -16 -42
right_child=1 3 4 7 22 6 -8 8 11 -11 34 -13 13 40 36 16 23 18 -20 20 -22 -23 -24 -25 -26 -27 33 28 -30 39 -32 -33 -34 -35 -36 -37 37 -39 -40 44 45 -43 -44 46 -46 -47 -48 -49 -50
leaf_value=0 0 0.00011190028864207374 0.00046034986790938849 2.2715606832061663e-05 0 0.0003961508998846901 -0.00068355415842049445 0.0013023003262197042 -1.771679696738846e-05 0 -3.5162063729430675e-05 -0.00029204233921805605 -0.00010718186187737855 0 0 -1.6109402341504895e-05 -0.000483084867330901 -0.00015029189770175244 0.00025390603640814481 0.00017240081910031119 -3.099574169806259e-05 3.6733333489250242e-05 0 0 0 2.4710791150980546e-05 0.00073020210720216934 -0.00046824476518198026 0 -0.00028405289176494343 -0.00059669767874705008 0.00012506063837798963 0 0 9.8907096106592787e-06 0 0 -0.00030759349500778844 0 1.255533180172558e-05 -0.00010067815366227411 0.00025094033864687834 0.00071975181282996623 0 -6.7568674742404407e-05 0 2.72585387634877e-05 2.0101266273436026e-05 0
leaf_weight=98 52 4043 94 4003 51 86 245 57 844 421 9259 1154 80 113 176 83376 217 93 593 3890 419 7116 73 52 53 6912 394 472 69 94 185 2716 52 60 19540 67 82 242 58 477 87 102 99 93 138 55 113 149 50
leaf_count=98 52 4043 94 4003 51 86 245 57 844 421 9259 1154 80 113 176 83376 217 93 593 3890 419 7116 73 52 53 6912 394 472 69 94 185 2716 52 60 19540 67 82 242 58 477 87 102 99 93 138 55 113 149 50
internal_value=0 2.9639e-05 0.000275738 2.33927e-05 2.92879e-05 -8.20145e-05 -0.000327317 4.98179e-07 -0.000112835 0.000152002 9.10705e-06 -0.000188764 -1.54677e-05 -0.000158471 7.64797e-05 -1.32069e-05 -1.12724e-05 -1.00896e-05 0.000162538 8.55709e-05 0.000146819 -1.16772e-05 0.000380656 -0.000256673 0.000541482 5.91812e-05 0.00059812 -0.000255288 -0.000351582 -0.000166224 -0.000385233 6.78249e-05 -0.00041519 0.00065898 -3.72698e-06 -0.000372467 -9.86119e-05 -0.000215395 0.000287276 -4.29911e-05 0 0.000125486 0.000579366 0 0 -3.31675e-05 0 0 -7.97747e-05
internal_weight=0 55172 1265 53907 706 483 331 37994 2476 478 35518 1998 93792 1286 15913 92506 91514 91178 686 15264 4309 90492 223 336 559 10955 506 879 593 992 283 6719 524 454 28799 284 649 324 152 709 407 215 150 286 615 192 206 325 137
internal_count=148964 55172 1265 53907 706 483 331 37994 2476 478 35518 1998 93792 1286 15913 92506 91514 91178 686 15264 4309 90492 223 336 559 10955 506 879 593 992 283 6719 524 454 28799 284 649 324 152 709 407 215 150 286 615 192 206 325 137
is_linear=0
shrinkage=0.05


Tree=4
num_leaves=44
num_cat=0
split_feature=96 18 83 83 34 21 18 42 96 98 42 11 28 135 102 52 95 28 135 47 28 77 122 52 133 23 28 76 8 51 93 83 102 85 80 101 13 6 24 18 72 133 21
split_gain=0.0354778 0.034292 0.0267492 0.0923399 0.0358826 0.0203822 0.0131962 0.0168124 0.0164166 0.0129983 0.0236749 0.0121986 0.0128645 0.0110601 0.010213 0.0107846 0.00999271 0.0103625 0.00857805 0.00716354 0.00717967 0.0070242 0.00692346 0.0066839 0.00606564 0.007768 0.00587313 0.00589195 0.00525982 0.00448606 0.00479921 0.00445606 0.00443724 0.00411432 0.00371367 0.00257079 0.00247684 0.00200665 0.00192532 0.00157656 0.00124052 4.1871e-05 0.000349658
threshold=-13.795057257083995 0.93406593406593474 -0.45776597826411203 -0.43973839462873582 108.62500000000001 0.15649237242041791 -0.47222222222222188 32.750000000000007 -4.8102533511491563 -168.0227035488513 15.500000000000002 1.1835327148437502 3.9185606060606064 18.065864264173324 0.73671543558571695 -0.11314003960091522 -3.0548801207705418 4.0523574561403519 -91.632917982905539 0.0013472799673891927 3.8633971291866032 0.69564637888313863 -4668224.4719069293 -0.1098829083750774 11.64164985318831 0.19709253311157229 3.1823069403714568 20.921411410254411 -0.65401268005371083 -3.4008350372314449 5.7922887802124032 -0.089669454771640469 -0.29892025209207157 5.1150000000000011 -0.003582602571653127 -0.31399816129944086 0.26561121483332978 46.750000000000007 0.29190074906367047 1.4645334928229667 0.43263378633756461 2.7130975479359218 0.33944929757781933
decision_type=2 2 2 2 2 2 2 2 2 2 2 2 2 2 2 2 2 2 2 2 2 2 2 2 2 2 2 2 2 2 2 2 2 2 2 2 2 2 2 2 2 2 2
left_child=1 18 4 -4 -3 13 14 8 9 10 -8 12 22 -5 15 16 17 -2 38 28 -21 -11 -9 -14 25 35 27 -10 -17 30 -16 -18 -7 34 -13 -20 -28 -35 -1 -6 -40 -31 -43
right_child=6 2 3 5 39 32 7 11 26 21 -12 33 23 -15 29 19 31 -19 24 20 -22 -23 -24 -25 -26 -27 36 -29 -30 41 -32 -33 -34 37 -36 -37 -38 -39 40 -41 -42 42 -44
leaf_value=0 0.00039748848514005247 0.0016982547042610511 -0.0016358415982888445 0.00061262394828843754 0 0.00021312951089150049 0.0012328543391026436 2.5030788228664016e-05 0.00013437606624159675 0.00018508617957477876 0 -0.00016669018825284435 -0.00011614956695593308 0 0 -5.5561666462925638e-05 0 0 -0.00065810939906904391 -0.00026167784994744758 0 4.4864627578496558e-05 0.0001464065995740614 -1.1815642153314048e-05 0 0 1.0197946207274929e-05 1.4373751810064784e-05 -1.1860839151853358e-05 0 -0.00051734709935685069 0.00013545946773783462 -0.00015667760802405271 -6.379422581763909e-05 0 0 -7.203802613746302e-05 8.346822738468051e-05 0 0.00027988394860202742 0.00032949844651001463 -8.6939506140932201e-05 0
leaf_weight=52 400 93 56 557 53 163 77 15401 2089 2088 79 1793 1807 74 86 8127 3962 133 138 606 306 2665 1415 17334 58 109 8766 3103 73066 89 197 771 146 638 398 80 1016 345 51 65 107 128 55
leaf_count=52 400 93 56 557 53 163 77 15401 2089 2088 79 1793 1807 74 86 8127 3962 133 138 606 306 2665 1415 17334 58 109 8766 3103 73066 89 197 771 146 638 398 80 1016 345 51 65 107 128 55
internal_value=0 0.00022008 0.000376443 0.000232719 0.000930796 0.00037302 -3.02546e-06 1.50506e-05 5.25702e-05 0.000133119 0.000617867 -3.37597e-06 4.25588e-06 0.000536361 -1.54421e-05 -1.37773e-05 5.43895e-05 0.00026498 -5.53507e-05 -1.84548e-05 -0.0001609 0.000111761 3.67428e-05 -2.29796e-05 -0.000224083 -0.000324408 2.44832e-05 6.74952e-05 -1.65439e-05 -0.000231852 -0.000380223 2.53173e-05 0 -9.76682e-05 -0.000136041 -0.000495959 0 0 0.000135185 0.000103004 0.00023326 0 -2.38193e-05
internal_weight=0 1802 1207 996 211 940 146940 59014 19883 4909 156 39131 35957 631 87926 87371 5266 533 595 82105 912 4753 16816 19141 385 327 14974 5192 81193 555 283 4733 309 3174 2191 218 9782 983 210 118 158 272 183
internal_count=148742 1802 1207 996 211 940 146940 59014 19883 4909 156 39131 35957 631 87926 87371 5266 533 595 82105 912 4753 16816 19141 385 327 14974 5192 81193 555 283 4733 309 3174 2191 218 9782 983 210 118 158 272 183
is_linear=0
shrinkage=0.05


Tree=5
num_leaves=28
num_cat=0
split_feature=149 34 83 83 120 18 42 149 134 133 68 79 44 27 77 34 68 67 27 27 128 107 115 133 77 24 62
split_gain=0.0344836 0.0574027 0.0378877 0.0501228 0.0159117 0.0140669 0.0148687 0.0259455 0.0153708 0.0123468 0.0118938 0.0116636 0.0111075 0.00850211 0.00818144 0.0072866 0.00712001 0.00655378 0.00833272 0.0146704 0.00496668 0.00449791 0.00481255 0.0038127 0.0019596 0.000317258 0.000231561
threshold=0.011076940382806733 302.00000000000006 -0.45776597826411203 -0.37445865144456997 1583324413.2500002 1.0846584546472566 14.250000000000002 0.0014101692181193897 9.307153212584538 14.198411697373485 -0.99490576140703135 -4.2499999999999991 0.23666666666666669 8.1998673544704789e-05 3.1495931198608926 266.75000000000006 -0.11278772043210181 -0.27680822576338415 0.00014989500410910774 6.8810843419460195e-05 24.698365298877366 38.174167251586915 8.0913553675282657 3.8254416362857184 0.31033632026659924 0.73935688405797106 0.27250000000000013
decision_type=2 2 2 2 2 2 2 2 2 2 2 2 2 2 2 2 2 2 2 2 2 2 2 2 2 2 2
left_child=4 2 -2 -4 5 10 7 23 9 -8 21 -5 -9 -10 15 -12 -16 -6 19 -19 -3 22 -1 -7 -20 -26 -23
right_child=1 20 3 11 17 6 8 12 13 -11 14 -13 -14 -15 16 -17 -18 18 24 -21 -22 26 -24 -25 25 -27 -28
leaf_value=0 0.0016586263616677832 -0.00069685272150197815 -0.00058744791320305295 0 0 8.6508179154708276e-06 1.4906134349139216e-05 0.00053070798211487592 1.2649986441925612e-05 0.0003267771915023926 -2.0999249392449939e-05 0.00093565001240462095 0 -0.00033757148566551984 1.8997524709478169e-05 1.4390386236306314e-05 -3.386485310974377e-05 0 0 -0.0010139197059961167 0 0 -0.00032723003321828362 0.00012006805021220668 -0.00021423272846267076 0 -7.1105018407935039e-05
leaf_weight=78 94 72 79 63 64 2644 30460 487 74 329 20545 187 186 475 7139 48139 34974 56 91 106 51 287 523 1559 194 55 113
leaf_count=78 94 72 79 63 64 2644 30460 487 74 329 20545 187 186 475 7139 48139 34974 56 91 106 51 287 523 1559 194 55 113
internal_value=0 0.00039658 0.000697193 0.000340574 -9.08366e-07 0 2.71867e-05 0.000109157 1.36303e-05 1.90664e-05 -8.66787e-06 0.000734987 0.000403501 -0.000245046 -6.88176e-06 3.44031e-06 -2.43096e-05 -0.000265163 -0.00033435 -0.000672016 -0.000432376 -0.000181122 -0.000270643 5.59524e-05 -9.80105e-05 -0.0001807 0
internal_weight=0 546 423 329 148578 148012 36214 4876 31338 30789 111798 250 673 549 110797 68684 42113 566 502 162 123 1001 601 4203 340 249 400
internal_count=149124 546 423 329 148578 148012 36214 4876 31338 30789 111798 250 673 549 110797 68684 42113 566 502 162 123 1001 601 4203 340 249 400
is_linear=0
shrinkage=0.05


Tree=6
num_leaves=36
num_cat=0
split_feature=149 150 46 11 129 106 129 148 147 17 95 97 95 68 96 139 67 68 148 129 41 74 23 97 74 1 80 69 95 65 31 23 106 115 16
split_gain=0.0309084 0.0311342 0.0317081 0.0178677 0.0197715 0.0203082 0.0176297 0.017195 0.0128369 0.00991817 0.00902195 0.017463 0.00814532 0.00784868 0.00719336 0.00709044 0.00564608 0.00497406 0.00593325 0.00575169 0.00457644 0.00396423 0.00841936 0.00974409 0.00388772 0.00306142 0.00305915 0.00284027 0.00135882 0.00132614 0.0012362 0.000299641 0.000182311 5.74141e-05 8.29401e-06
threshold=0.011076940382806733 -3.8668972233891918 1.1421765272165354 1.5939483642578127 76.78571428571432 0.12386718507128366 98.214285714285737 0.00075834646190445383 -0.84480809823626268 -0.95579975579975573 -6.7649490889124522 -54.004403247345444 10.45237725533409 -0.25954192388550817 -8.9350990782233168 2.2901071307504601 -1.8319636832344948e-06 -0.11004150918509109 -0.03892419211492458 98.214285714285737 1.0624999998731643 -0.41512442521353193 3.6914482116699223 -55.505437536207701 -0.29069434019387524 0.65381129800252091 -0.0055492823187450998 0.5690981431432387 -0.045248941973069494 -7.0849999999999991 0.0053692032812446269 -3.0111074447631831 0.17221163774081394 22.57832610784131 -0.068080336959273707
decision_type=2 2 2 2 2 2 2 2 2 2 2 2 2 2 2 2 2 2 2 2 2 2 2 2 2 2 2 2 2 2 2 2 2 2 2
left_child=3 2 32 4 8 17 9 -8 14 -7 11 -10 -12 -4 16 -16 -1 19 -19 -6 -3 22 23 29 28 26 -26 -15 31 -5 -24 -23 -2 -27 -25
right_child=1 20 13 21 5 6 7 -9 10 -11 12 -13 -14 27 15 -17 -18 18 -20 -21 -22 24 30 34 25 33 -28 -29 -30 -31 -32 -33 -34 -35 -36
leaf_value=0 0 0 0.00046867837042858206 0 0.00012383690193848904 0 7.8464514510881287e-05 -0.00021038749337487603 -2.6246837565903764e-06 0.00018989029185082653 -8.0303234991081481e-06 -0.00052987211731637886 -0.00013149033362181364 -0.00048060151624032164 5.891098835912071e-06 0.00012309387502075744 -0.00040449102170510097 -0.00018597699846250982 9.6453547217082479e-06 -6.0021691345930306e-06 -0.00058685039643635627 0 -4.9550501873420777e-06 -1.4891773563166763e-05 -0.00016593448348765745 3.0579132914388107e-05 0 0 0 -0.0006566131011063271 0.00020501189263296776 0.00016069530935358106 0.0010061950277544256 0 0
leaf_weight=173 52 50 66 56 2047 512 2074 681 709 4414 103028 248 1385 50 2828 3446 128 385 22631 876 52 51 52 92 1372 152 321 61 101 205 72 173 224 60 110
leaf_count=173 52 50 66 56 2047 512 2074 681 709 4414 103028 248 1385 50 2828 3446 128 385 22631 876 52 51 52 92 1372 152 321 61 101 205 72 173 224 60 110
internal_value=0 0.000373721 0.000571753 1.92898e-07 2.77528e-06 3.65227e-05 0.000108443 0 -7.13697e-06 0.000165165 -1.15661e-05 -0.000165955 -9.90927e-06 0 6.0029e-05 7.42626e-05 -0.000152908 1.42569e-05 5.27505e-06 7.63936e-05 -0.000259765 -0.000124309 -0.000261707 -0.000363439 -7.67872e-05 -0.000108676 -0.000133435 -0.000206445 3.32038e-05 -0.000571432 0 0.000129077 0.000906129 0 0
internal_weight=0 555 453 148382 145565 33620 7681 2755 111945 4926 105370 957 104413 177 6575 6274 301 25939 23016 2923 102 2817 587 463 2230 1905 1693 111 325 261 124 224 276 212 202
internal_count=148937 555 453 148382 145565 33620 7681 2755 111945 4926 105370 957 104413 177 6575 6274 301 25939 23016 2923 102 2817 587 463 2230 1905 1693 111 325 261 124 224 276 212 202
is_linear=0
shrinkage=0.05


Tree=7
num_leaves=32
num_cat=0
split_feature=94 120 27 11 79 131 80 28 133 0 0 90 0 112 39 31 74 25 137 129 68 131 78 25 16 22 30 14 8 33 127
split_gain=0.0260201 0.0207364 0.0182243 0.0152312 0.0136696 0.0129639 0.0122913 0.0114576 0.0122982 0.00922175 0.011331 0.00755863 0.00731385 0.00660467 0.00656923 0.00584507 0.00532557 0.00484273 0.00529889 0.00464831 0.0118542 0.00367264 0.0028645 0.0027153 0.00224135 0.00223495 0.00189108 0.00105121 0.000851926 0.000409179 0.000140878
threshold=-8.7566413879394513 1583324413.2500002 0.00029073750884799245 1.2439627647399905 -4.2499999999999991 -51.785714285714263 -0.25530500383096594 3.698958333333334 4.7522013513387469 -0.10482938114517061 -0.17725134408602147 43.625334577022777 0.082875457875457928 188.89025075246127 0.62254408084677737 0.0047193497097669937 -0.23727954464194209 -0.88388347648318299 -43.489015393876855 48.214285714285708 -0.35213103498213899 -51.785714285714263 0.82415716235645642 0.33767679498086145 -0.12560833103733385 0.38339424133300787 0.80164053751399789 -1.5499999999999974 -0.032528638839721673 0.40052083333333338 15.653276585811501
decision_type=2 2 2 2 2 2 2 2 2 2 2 2 2 2 2 2 2 2 2 2 2 2 2 2 2 2 2 2 2 2 2
left_child=3 2 4 6 9 28 -1 8 -6 10 -2 15 -11 19 -9 -8 26 -7 30 25 -21 -17 -20 24 -18 -4 -5 -15 -3 -26 -19
right_child=1 5 13 16 7 17 11 14 -10 12 -12 -13 -14 27 -16 21 23 18 22 20 -22 -23 -24 -25 29 -27 -28 -29 -30 -31 -32
leaf_value=0 1.6453779577505696e-06 0 -3.6499864986434588e-05 0.00040947877555508279 3.4456451134257342e-05 0 0 9.6807356586195071e-06 0.00012643529464891344 -5.9927766740320971e-05 0.00011324075504031844 0 -4.3240442151834966e-06 0 -0.00034412576533916035 0.00076672116631520688 0 0 -0.00096331332200168891 0.00019496476512286589 -1.0125466924250126e-05 5.3171736065049247e-05 -9.8259707665035169e-05 0 0 0 0 -0.00033251780772921408 0.0001891962511587483 -0.00036082019964246324 -8.9622184260940521e-05
leaf_weight=158 10326 76 33188 84 13725 52 101 18334 5645 8453 3106 84 23637 55 128 296 52 51 124 718 25531 106 93 91 51 4022 50 209 58 130 93
leaf_count=158 10326 76 33188 84 13725 52 101 18334 5645 8453 3106 84 23637 55 128 296 52 51 124 718 25531 106 93 91 51 4022 50 209 58 130 93
internal_value=0 -3.26268e-06 -1.94718e-06 0.000229959 1.32545e-05 -0.000310423 0.000369235 3.55458e-05 6.25601e-05 -4.7225e-06 2.93213e-05 0.000474502 -1.97521e-05 -2.22242e-05 5.84596e-06 0.00054781 0 -0.000453547 -0.000518276 -2.0756e-05 -3.55236e-06 0.000641426 -0.000710212 -0.000106697 -0.000211542 -3.22195e-05 0.00026629 -0.000278863 0 -0.000296991 -5.28788e-05
internal_weight=0 147624 147077 1203 83354 547 745 37832 19370 45522 13432 587 32090 63723 18462 503 458 413 361 63459 26249 402 217 324 233 37210 134 264 134 181 144
internal_count=148827 147624 147077 1203 83354 547 745 37832 19370 45522 13432 587 32090 63723 18462 503 458 413 361 63459 26249 402 217 324 233 37210 134 264 134 181 144
is_linear=0
shrinkage=0.05


Tree=8
num_leaves=28
num_cat=0
split_feature=149 34 88 68 11 148 129 68 80 81 148 31 11 28 14 97 68 149 74 0 14 130 37 119 55 0 55
split_gain=0.0239846 0.0534173 0.0234094 0.0151228 0.0122495 0.0172692 0.0155735 0.0162047 0.012239 0.0103437 0.00891156 0.0138525 0.00879173 0.0081984 0.00764337 0.00740331 0.00716408 0.00527977 0.00412552 0.00366046 0.00308194 0.00303294 0.00600432 0.00242411 0.00177031 0.00095032 0.000966991
threshold=0.011076940382806733 274.00000000000006 -0.00073543261332965838 -0.99490576140703135 0.66991519927978527 -0.065636324203833987 76.78571428571432 -0.3316037283970753 -0.63492061314957848 -0.74499999999999988 -0.053065520315085123 0.0054669503247381408 -0.48834419250488276 2.6918985270049105 -1.3799999999999972 -112.85329912514165 -0.12831801983452679 0.0024112330521972709 -0.048114264987112014 0.14946808510638301 -1.1499999999999979 7.1428571428571415 -0.15206944444444445 0.81734090439082385 -0.28514010847107435 0.16578014184397163 -0.17605753763262916
decision_type=2 2 2 2 2 2 2 2 2 2 2 2 2 2 2 2 2 2 2 2 2 2 2 2 2 2 2
left_child=3 2 9 14 5 8 12 -8 -5 21 11 16 -7 17 24 -16 -6 -12 -3 -15 -17 -2 -23 -13 -1 26 -26
right_child=1 18 -4 4 10 6 7 -9 -10 -11 13 23 -14 19 15 20 -18 -19 -20 -21 -22 22 -24 -25 25 -27 -28
leaf_value=-0.00026715507645768902 0.00019333785178266396 -0.00076506702015806643 0.0010822736181788863 0 0 -4.0819364174153741e-05 0.00022145112354250287 2.5733561381756804e-05 0.0011885978904735697 0.0005820763422600114 -1.4590837438926157e-06 -0.00011255233959299209 -4.5587270422736591e-07 -8.3338671855557659e-05 0 -0.00063058969234560964 -0.00045857320624383005 0.0001461965085563176 0 -8.6894193001158778e-06 0 0 -0.00061581752651772639 0.00017268664871601756 8.6680143616696894e-05 -0.00013102369990284794 0
leaf_weight=83 50 65 182 51 68 16315 1146 27753 51 96 4897 52 85693 6638 69 207 417 649 60 3249 76 50 53 179 336 130 109
leaf_count=83 50 65 182 51 68 16315 1146 27753 51 96 4897 52 85693 6638 69 207 417 649 60 3249 76 50 53 179 336 130 109
internal_value=0 0.000324363 0.000615011 -3.8594e-06 -2.36301e-06 2.52191e-06 1.81992e-06 3.43709e-05 0.000648839 0.000169242 -4.35365e-05 -0.000222325 -7.15713e-06 -3.36013e-05 -0.000196842 -0.000400479 -0.000379581 1.13481e-05 -0.000475573 -6.13412e-05 -0.000514137 0 -0.000232673 6.38236e-07 -4.93345e-05 0 1.6278e-05
internal_weight=0 556 431 148168 147158 131009 130907 28899 102 249 16149 716 102008 15433 1010 352 485 5546 125 9887 283 153 103 231 658 575 445
internal_count=148724 556 431 148168 147158 131009 130907 28899 102 249 16149 716 102008 15433 1010 352 485 5546 125 9887 283 153 103 231 658 575 445
is_linear=0
shrinkage=0.05


end of trees

feature_importances:
Column_129=18
Column_68=11
Column_83=11
Column_149=11
Column_28=10
Column_34=10
Column_42=10
Column_0=9
Column_27=9
Column_133=9
Column_11=8
Column_148=8
Column_74=7
Column_77=7
Column_106=7
Column_47=6
Column_51=6
Column_95=6
Column_97=6
Column_18=5
Column_88=5
Column_96=5
Column_13=4
Column_14=4
Column_23=4
Column_67=4
Column_80=4
Column_93=4
Column_130=4
Column_131=4
Column_134=4
Column_147=4
Column_8=3
Column_25=3
Column_31=3
Column_94=3
Column_102=3
Column_128=3
Column_135=3
Column_1=2
Column_16=2
Column_21=2
Column_24=2
Column_30=2
Column_35=2
Column_37=2
Column_38=2
Column_39=2
Column_44=2
Column_46=2
Column_52=2
Column_55=2
Column_65=2
Column_78=2
Column_79=2
Column_101=2
Column_115=2
Column_119=2
Column_120=2
Column_139=2
Column_6=1
Column_10=1
Column_17=1
Column_19=1
Column_22=1
Column_33=1
Column_41=1
Column_45=1
Column_48=1
Column_49=1
Column_56=1
Column_62=1
Column_69=1
Column_72=1
Column_76=1
Column_81=1
Column_85=1
Column_86=1
Column_90=1
Column_92=1
Column_98=1
Column_99=1
Column_107=1
Column_112=1
Column_118=1
Column_122=1
Column_124=1
Column_126=1
Column_127=1
Column_137=1
Column_144=1
Column_145=1
Column_150=1

parameters:
[boosting: gbdt]
[objective: regression]
[metric: rmse]
[tree_learner: serial]
[device_type: cpu]
[data_sample_strategy: bagging]
[data: ]
[valid: ]
[num_iterations: 500]
[learning_rate: 0.05]
[num_leaves: 64]
[num_threads: 4]
[seed: 42]
[deterministic: 0]
[force_col_wise: 0]
[force_row_wise: 0]
[histogram_pool_size: -1]
[max_depth: 6]
[min_data_in_leaf: 50]
[min_sum_hessian_in_leaf: 0.001]
[bagging_fraction: 0.7]
[pos_bagging_fraction: 1]
[neg_bagging_fraction: 1]
[bagging_freq: 1]
[bagging_seed: 400]
[feature_fraction: 0.7]
[feature_fraction_bynode: 1]
[feature_fraction_seed: 30056]
[extra_trees: 0]
[extra_seed: 12879]
[early_stopping_round: 0]
[first_metric_only: 0]
[max_delta_step: 0]
[lambda_l1: 0.5]
[lambda_l2: 1.5]
[linear_lambda: 0]
[min_gain_to_split: 0]
[drop_rate: 0.1]
[max_drop: 50]
[skip_drop: 0.5]
[xgboost_dart_mode: 0]
[uniform_drop: 0]
[drop_seed: 17869]
[top_rate: 0.2]
[other_rate: 0.1]
[min_data_per_group: 100]
[max_cat_threshold: 32]
[cat_l2: 10]
[cat_smooth: 10]
[max_cat_to_onehot: 4]
[top_k: 20]
[monotone_constraints: ]
[monotone_constraints_method: basic]
[monotone_penalty: 0]
[feature_contri: ]
[forcedsplits_filename: ]
[refit_decay_rate: 0.9]
[cegb_tradeoff: 1]
[cegb_penalty_split: 0]
[cegb_penalty_feature_lazy: ]
[cegb_penalty_feature_coupled: ]
[path_smooth: 0]
[interaction_constraints: ]
[verbosity: -1]
[saved_feature_importance_type: 0]
[use_quantized_grad: 0]
[num_grad_quant_bins: 4]
[quant_train_renew_leaf: 0]
[stochastic_rounding: 1]
[linear_tree: 0]
[max_bin: 255]
[max_bin_by_feature: ]
[min_data_in_bin: 3]
[bin_construct_sample_cnt: 200000]
[data_random_seed: 175]
[is_enable_sparse: 1]
[enable_bundle: 1]
[use_missing: 1]
[zero_as_missing: 0]
[feature_pre_filter: 1]
[pre_partition: 0]
[two_round: 0]
[header: 0]
[label_column: ]
[weight_column: ]
[group_column: ]
[ignore_column: ]
[categorical_feature: ]
[forcedbins_filename: ]
[precise_float_parser: 0]
[parser_config_file: ]
[objective_seed: 16083]
[num_class: 1]
[is_unbalance: 0]
[scale_pos_weight: 1]
[sigmoid: 1]
[boost_from_average: 1]
[reg_sqrt: 0]
[alpha: 0.9]
[fair_c: 1]
[poisson_max_delta_step: 0.7]
[tweedie_variance_power: 1.5]
[lambdarank_truncation_level: 30]
[lambdarank_norm: 1]
[label_gain: ]
[lambdarank_position_bias_regularization: 0]
[eval_at: ]
[multi_error_top_k: 1]
[auc_mu_weights: ]
[num_machines: 1]
[local_listen_port: 12400]
[time_out: 120]
[machine_list_filename: ]
[machines: ]
[gpu_platform_id: -1]
[gpu_device_id: -1]
[gpu_use_dp: 0]
[num_gpu: 1]

end of parameters

pandas_categorical:null
